<?xml version="1.0"?>
<PMML version="4.1" xmlns="http://www.dmg.org/PMML-4_1" xmlns:xsi="http://www.w3.org/2001/XMLSchema-instance" xsi:schemaLocation="http://www.dmg.org/PMML-4_1 http://www.dmg.org/v4-1/pmml-4-1.xsd">
 <Header copyright="Copyright (c) 2013 admin" description="Random Forest Tree Model">
  <Extension name="user" value="admin" extender="Rattle/PMML"/>
  <Application name="Rattle/PMML" version="1.2.34r27"/>
  <Timestamp>2013-05-09 22:19:02</Timestamp>
 </Header>
 <DataDictionary numberOfFields="11">
  <DataField name="label" optype="categorical" dataType="string">
   <Value value="0"/>
   <Value value="1"/>
  </DataField>
  <DataField name="v0" optype="continuous" dataType="double"/>
  <DataField name="v1" optype="continuous" dataType="double"/>
  <DataField name="v2" optype="continuous" dataType="double"/>
  <DataField name="v3" optype="continuous" dataType="double"/>
  <DataField name="v4" optype="continuous" dataType="double"/>
  <DataField name="v5" optype="continuous" dataType="double"/>
  <DataField name="v6" optype="continuous" dataType="double"/>
  <DataField name="v7" optype="continuous" dataType="double"/>
  <DataField name="v8" optype="continuous" dataType="double"/>
  <DataField name="v9" optype="continuous" dataType="double"/>
 </DataDictionary>
 <MiningModel modelName="randomForest_Model" functionName="classification">
  <MiningSchema>
   <MiningField name="label" usageType="predicted"/>
   <MiningField name="v0" usageType="active"/>
   <MiningField name="v1" usageType="active"/>
   <MiningField name="v2" usageType="active"/>
   <MiningField name="v3" usageType="active"/>
   <MiningField name="v4" usageType="active"/>
   <MiningField name="v5" usageType="active"/>
   <MiningField name="v6" usageType="active"/>
   <MiningField name="v7" usageType="active"/>
   <MiningField name="v8" usageType="active"/>
   <MiningField name="v9" usageType="active"/>
  </MiningSchema>
  <Output>
   <OutputField name="Predicted_label" feature="predictedValue"/>
   <OutputField name="Probability_0" optype="continuous" dataType="double" feature="probability" value="0"/>
   <OutputField name="Probability_1" optype="continuous" dataType="double" feature="probability" value="1"/>
  </Output>
  <Segmentation multipleModelMethod="majorityVote">
   <Segment id="1">
    <True/>
    <TreeModel modelName="randomForest_Model" functionName="classification" algorithmName="randomForest" splitCharacteristic="binarySplit">
     <MiningSchema>
      <MiningField name="label" usageType="predicted"/>
      <MiningField name="v0" usageType="active"/>
      <MiningField name="v1" usageType="active"/>
      <MiningField name="v2" usageType="active"/>
      <MiningField name="v3" usageType="active"/>
      <MiningField name="v4" usageType="active"/>
      <MiningField name="v5" usageType="active"/>
      <MiningField name="v6" usageType="active"/>
      <MiningField name="v7" usageType="active"/>
      <MiningField name="v8" usageType="active"/>
      <MiningField name="v9" usageType="active"/>
     </MiningSchema>
     <Node id="1">
      <True/>
      <Node id="2">
       <SimplePredicate field="v4" operator="lessOrEqual" value="1.025"/>
       <Node id="4">
        <SimplePredicate field="v4" operator="lessOrEqual" value="0.38"/>
        <Node id="8" score="0">
         <SimplePredicate field="v9" operator="lessOrEqual" value="0.495"/>
        </Node>
        <Node id="9">
         <SimplePredicate field="v9" operator="greaterThan" value="0.495"/>
         <Node id="14" score="0">
          <SimplePredicate field="v2" operator="lessOrEqual" value="0.455"/>
         </Node>
         <Node id="15">
          <SimplePredicate field="v2" operator="greaterThan" value="0.455"/>
          <Node id="20" score="0">
           <SimplePredicate field="v8" operator="lessOrEqual" value="0.25"/>
          </Node>
          <Node id="21">
           <SimplePredicate field="v8" operator="greaterThan" value="0.25"/>
           <Node id="24" score="0">
            <SimplePredicate field="v1" operator="lessOrEqual" value="0.275"/>
           </Node>
           <Node id="25" score="1">
            <SimplePredicate field="v1" operator="greaterThan" value="0.275"/>
           </Node>
          </Node>
         </Node>
        </Node>
       </Node>
       <Node id="5">
        <SimplePredicate field="v4" operator="greaterThan" value="0.38"/>
        <Node id="10">
         <SimplePredicate field="v7" operator="lessOrEqual" value="1.37"/>
         <Node id="16" score="0">
          <SimplePredicate field="v5" operator="lessOrEqual" value="0.035"/>
         </Node>
         <Node id="17">
          <SimplePredicate field="v5" operator="greaterThan" value="0.035"/>
          <Node id="22" score="0">
           <SimplePredicate field="v2" operator="lessOrEqual" value="-0.03"/>
          </Node>
          <Node id="23">
           <SimplePredicate field="v2" operator="greaterThan" value="-0.03"/>
           <Node id="26">
            <SimplePredicate field="v3" operator="lessOrEqual" value="1.235"/>
            <Node id="28" score="0">
             <SimplePredicate field="v6" operator="lessOrEqual" value="-0.085"/>
            </Node>
            <Node id="29">
             <SimplePredicate field="v6" operator="greaterThan" value="-0.085"/>
             <Node id="30">
              <SimplePredicate field="v0" operator="lessOrEqual" value="0.18"/>
              <Node id="32" score="0">
               <SimplePredicate field="v1" operator="lessOrEqual" value="0.28"/>
              </Node>
              <Node id="33" score="1">
               <SimplePredicate field="v1" operator="greaterThan" value="0.28"/>
              </Node>
             </Node>
             <Node id="31" score="1">
              <SimplePredicate field="v0" operator="greaterThan" value="0.18"/>
             </Node>
            </Node>
           </Node>
           <Node id="27" score="0">
            <SimplePredicate field="v3" operator="greaterThan" value="1.235"/>
           </Node>
          </Node>
         </Node>
        </Node>
        <Node id="11" score="0">
         <SimplePredicate field="v7" operator="greaterThan" value="1.37"/>
        </Node>
       </Node>
      </Node>
      <Node id="3">
       <SimplePredicate field="v4" operator="greaterThan" value="1.025"/>
       <Node id="6">
        <SimplePredicate field="v7" operator="lessOrEqual" value="0.905"/>
        <Node id="12" score="0">
         <SimplePredicate field="v6" operator="lessOrEqual" value="0.59"/>
        </Node>
        <Node id="13">
         <SimplePredicate field="v6" operator="greaterThan" value="0.59"/>
         <Node id="18" score="1">
          <SimplePredicate field="v9" operator="lessOrEqual" value="0.93"/>
         </Node>
         <Node id="19" score="0">
          <SimplePredicate field="v9" operator="greaterThan" value="0.93"/>
         </Node>
        </Node>
       </Node>
       <Node id="7" score="0">
        <SimplePredicate field="v7" operator="greaterThan" value="0.905"/>
       </Node>
      </Node>
     </Node>
    </TreeModel>
   </Segment>
   <Segment id="2">
    <True/>
    <TreeModel modelName="randomForest_Model" functionName="classification" algorithmName="randomForest" splitCharacteristic="binarySplit">
     <MiningSchema>
      <MiningField name="label" usageType="predicted"/>
      <MiningField name="v0" usageType="active"/>
      <MiningField name="v1" usageType="active"/>
      <MiningField name="v2" usageType="active"/>
      <MiningField name="v3" usageType="active"/>
      <MiningField name="v4" usageType="active"/>
      <MiningField name="v5" usageType="active"/>
      <MiningField name="v6" usageType="active"/>
      <MiningField name="v7" usageType="active"/>
      <MiningField name="v8" usageType="active"/>
      <MiningField name="v9" usageType="active"/>
     </MiningSchema>
     <Node id="1">
      <True/>
      <Node id="2">
       <SimplePredicate field="v7" operator="lessOrEqual" value="0.965"/>
       <Node id="4">
        <SimplePredicate field="v4" operator="lessOrEqual" value="0.25"/>
        <Node id="8" score="0">
         <SimplePredicate field="v0" operator="lessOrEqual" value="0.88"/>
        </Node>
        <Node id="9">
         <SimplePredicate field="v0" operator="greaterThan" value="0.88"/>
         <Node id="14" score="0">
          <SimplePredicate field="v2" operator="lessOrEqual" value="0.665"/>
         </Node>
         <Node id="15">
          <SimplePredicate field="v2" operator="greaterThan" value="0.665"/>
          <Node id="22" score="1">
           <SimplePredicate field="v2" operator="lessOrEqual" value="0.92"/>
          </Node>
          <Node id="23" score="0">
           <SimplePredicate field="v2" operator="greaterThan" value="0.92"/>
          </Node>
         </Node>
        </Node>
       </Node>
       <Node id="5">
        <SimplePredicate field="v4" operator="greaterThan" value="0.25"/>
        <Node id="10">
         <SimplePredicate field="v0" operator="lessOrEqual" value="0.26"/>
         <Node id="16" score="0">
          <SimplePredicate field="v5" operator="lessOrEqual" value="0.645"/>
         </Node>
         <Node id="17">
          <SimplePredicate field="v5" operator="greaterThan" value="0.645"/>
          <Node id="24" score="0">
           <SimplePredicate field="v0" operator="lessOrEqual" value="0.03"/>
          </Node>
          <Node id="25" score="1">
           <SimplePredicate field="v0" operator="greaterThan" value="0.03"/>
          </Node>
         </Node>
        </Node>
        <Node id="11">
         <SimplePredicate field="v0" operator="greaterThan" value="0.26"/>
         <Node id="18" score="0">
          <SimplePredicate field="v7" operator="lessOrEqual" value="0.12"/>
         </Node>
         <Node id="19">
          <SimplePredicate field="v7" operator="greaterThan" value="0.12"/>
          <Node id="26">
           <SimplePredicate field="v4" operator="lessOrEqual" value="1.035"/>
           <Node id="30">
            <SimplePredicate field="v8" operator="lessOrEqual" value="0.305"/>
            <Node id="34" score="0">
             <SimplePredicate field="v2" operator="lessOrEqual" value="0.275"/>
            </Node>
            <Node id="35" score="1">
             <SimplePredicate field="v2" operator="greaterThan" value="0.275"/>
            </Node>
           </Node>
           <Node id="31">
            <SimplePredicate field="v8" operator="greaterThan" value="0.305"/>
            <Node id="36" score="1">
             <SimplePredicate field="v3" operator="lessOrEqual" value="1.095"/>
            </Node>
            <Node id="37">
             <SimplePredicate field="v3" operator="greaterThan" value="1.095"/>
             <Node id="40" score="0">
              <SimplePredicate field="v7" operator="lessOrEqual" value="0.5"/>
             </Node>
             <Node id="41" score="1">
              <SimplePredicate field="v7" operator="greaterThan" value="0.5"/>
             </Node>
            </Node>
           </Node>
          </Node>
          <Node id="27">
           <SimplePredicate field="v4" operator="greaterThan" value="1.035"/>
           <Node id="32" score="0">
            <SimplePredicate field="v7" operator="lessOrEqual" value="0.84"/>
           </Node>
           <Node id="33">
            <SimplePredicate field="v7" operator="greaterThan" value="0.84"/>
            <Node id="38" score="0">
             <SimplePredicate field="v2" operator="lessOrEqual" value="0.3"/>
            </Node>
            <Node id="39" score="1">
             <SimplePredicate field="v2" operator="greaterThan" value="0.3"/>
            </Node>
           </Node>
          </Node>
         </Node>
        </Node>
       </Node>
      </Node>
      <Node id="3">
       <SimplePredicate field="v7" operator="greaterThan" value="0.965"/>
       <Node id="6">
        <SimplePredicate field="v5" operator="lessOrEqual" value="0.915"/>
        <Node id="12" score="0">
         <SimplePredicate field="v0" operator="lessOrEqual" value="0.185"/>
        </Node>
        <Node id="13">
         <SimplePredicate field="v0" operator="greaterThan" value="0.185"/>
         <Node id="20">
          <SimplePredicate field="v2" operator="lessOrEqual" value="0.805"/>
          <Node id="28" score="0">
           <SimplePredicate field="v5" operator="lessOrEqual" value="0.2"/>
          </Node>
          <Node id="29" score="1">
           <SimplePredicate field="v5" operator="greaterThan" value="0.2"/>
          </Node>
         </Node>
         <Node id="21" score="0">
          <SimplePredicate field="v2" operator="greaterThan" value="0.805"/>
         </Node>
        </Node>
       </Node>
       <Node id="7" score="0">
        <SimplePredicate field="v5" operator="greaterThan" value="0.915"/>
       </Node>
      </Node>
     </Node>
    </TreeModel>
   </Segment>
   <Segment id="3">
    <True/>
    <TreeModel modelName="randomForest_Model" functionName="classification" algorithmName="randomForest" splitCharacteristic="binarySplit">
     <MiningSchema>
      <MiningField name="label" usageType="predicted"/>
      <MiningField name="v0" usageType="active"/>
      <MiningField name="v1" usageType="active"/>
      <MiningField name="v2" usageType="active"/>
      <MiningField name="v3" usageType="active"/>
      <MiningField name="v4" usageType="active"/>
      <MiningField name="v5" usageType="active"/>
      <MiningField name="v6" usageType="active"/>
      <MiningField name="v7" usageType="active"/>
      <MiningField name="v8" usageType="active"/>
      <MiningField name="v9" usageType="active"/>
     </MiningSchema>
     <Node id="1">
      <True/>
      <Node id="2">
       <SimplePredicate field="v6" operator="lessOrEqual" value="1.075"/>
       <Node id="4">
        <SimplePredicate field="v4" operator="lessOrEqual" value="0.25"/>
        <Node id="8" score="0">
         <SimplePredicate field="v1" operator="lessOrEqual" value="0.37"/>
        </Node>
        <Node id="9">
         <SimplePredicate field="v1" operator="greaterThan" value="0.37"/>
         <Node id="14">
          <SimplePredicate field="v6" operator="lessOrEqual" value="1.005"/>
          <Node id="20" score="0">
           <SimplePredicate field="v6" operator="lessOrEqual" value="0.38"/>
          </Node>
          <Node id="21">
           <SimplePredicate field="v6" operator="greaterThan" value="0.38"/>
           <Node id="26">
            <SimplePredicate field="v1" operator="lessOrEqual" value="0.575"/>
            <Node id="32" score="1">
             <SimplePredicate field="v9" operator="lessOrEqual" value="0.82"/>
            </Node>
            <Node id="33" score="0">
             <SimplePredicate field="v9" operator="greaterThan" value="0.82"/>
            </Node>
           </Node>
           <Node id="27" score="0">
            <SimplePredicate field="v1" operator="greaterThan" value="0.575"/>
           </Node>
          </Node>
         </Node>
         <Node id="15" score="1">
          <SimplePredicate field="v6" operator="greaterThan" value="1.005"/>
         </Node>
        </Node>
       </Node>
       <Node id="5">
        <SimplePredicate field="v4" operator="greaterThan" value="0.25"/>
        <Node id="10">
         <SimplePredicate field="v4" operator="lessOrEqual" value="1.035"/>
         <Node id="16">
          <SimplePredicate field="v6" operator="lessOrEqual" value="0.29"/>
          <Node id="22" score="0">
           <SimplePredicate field="v6" operator="lessOrEqual" value="0.025"/>
          </Node>
          <Node id="23">
           <SimplePredicate field="v6" operator="greaterThan" value="0.025"/>
           <Node id="28" score="1">
            <SimplePredicate field="v6" operator="lessOrEqual" value="0.07"/>
           </Node>
           <Node id="29">
            <SimplePredicate field="v6" operator="greaterThan" value="0.07"/>
            <Node id="34" score="0">
             <SimplePredicate field="v0" operator="lessOrEqual" value="0.595"/>
            </Node>
            <Node id="35" score="1">
             <SimplePredicate field="v0" operator="greaterThan" value="0.595"/>
            </Node>
           </Node>
          </Node>
         </Node>
         <Node id="17">
          <SimplePredicate field="v6" operator="greaterThan" value="0.29"/>
          <Node id="24" score="0">
           <SimplePredicate field="v9" operator="lessOrEqual" value="0.07"/>
          </Node>
          <Node id="25">
           <SimplePredicate field="v9" operator="greaterThan" value="0.07"/>
           <Node id="30">
            <SimplePredicate field="v8" operator="lessOrEqual" value="1.475"/>
            <Node id="36" score="0">
             <SimplePredicate field="v0" operator="lessOrEqual" value="-0.19"/>
            </Node>
            <Node id="37">
             <SimplePredicate field="v0" operator="greaterThan" value="-0.19"/>
             <Node id="38">
              <SimplePredicate field="v4" operator="lessOrEqual" value="0.31"/>
              <Node id="40" score="0">
               <SimplePredicate field="v9" operator="lessOrEqual" value="0.595"/>
              </Node>
              <Node id="41" score="1">
               <SimplePredicate field="v9" operator="greaterThan" value="0.595"/>
              </Node>
             </Node>
             <Node id="39" score="1">
              <SimplePredicate field="v4" operator="greaterThan" value="0.31"/>
             </Node>
            </Node>
           </Node>
           <Node id="31" score="0">
            <SimplePredicate field="v8" operator="greaterThan" value="1.475"/>
           </Node>
          </Node>
         </Node>
        </Node>
        <Node id="11" score="0">
         <SimplePredicate field="v4" operator="greaterThan" value="1.035"/>
        </Node>
       </Node>
      </Node>
      <Node id="3">
       <SimplePredicate field="v6" operator="greaterThan" value="1.075"/>
       <Node id="6">
        <SimplePredicate field="v5" operator="lessOrEqual" value="1.005"/>
        <Node id="12" score="0">
         <SimplePredicate field="v9" operator="lessOrEqual" value="0.32"/>
        </Node>
        <Node id="13">
         <SimplePredicate field="v9" operator="greaterThan" value="0.32"/>
         <Node id="18" score="1">
          <SimplePredicate field="v9" operator="lessOrEqual" value="0.92"/>
         </Node>
         <Node id="19" score="0">
          <SimplePredicate field="v9" operator="greaterThan" value="0.92"/>
         </Node>
        </Node>
       </Node>
       <Node id="7" score="0">
        <SimplePredicate field="v5" operator="greaterThan" value="1.005"/>
       </Node>
      </Node>
     </Node>
    </TreeModel>
   </Segment>
   <Segment id="4">
    <True/>
    <TreeModel modelName="randomForest_Model" functionName="classification" algorithmName="randomForest" splitCharacteristic="binarySplit">
     <MiningSchema>
      <MiningField name="label" usageType="predicted"/>
      <MiningField name="v0" usageType="active"/>
      <MiningField name="v1" usageType="active"/>
      <MiningField name="v2" usageType="active"/>
      <MiningField name="v3" usageType="active"/>
      <MiningField name="v4" usageType="active"/>
      <MiningField name="v5" usageType="active"/>
      <MiningField name="v6" usageType="active"/>
      <MiningField name="v7" usageType="active"/>
      <MiningField name="v8" usageType="active"/>
      <MiningField name="v9" usageType="active"/>
     </MiningSchema>
     <Node id="1">
      <True/>
      <Node id="2">
       <SimplePredicate field="v4" operator="lessOrEqual" value="0.995"/>
       <Node id="4">
        <SimplePredicate field="v1" operator="lessOrEqual" value="0.325"/>
        <Node id="8" score="0">
         <SimplePredicate field="v1" operator="lessOrEqual" value="0.205"/>
        </Node>
        <Node id="9">
         <SimplePredicate field="v1" operator="greaterThan" value="0.205"/>
         <Node id="16">
          <SimplePredicate field="v1" operator="lessOrEqual" value="0.255"/>
          <Node id="24" score="1">
           <SimplePredicate field="v7" operator="lessOrEqual" value="0.975"/>
          </Node>
          <Node id="25" score="0">
           <SimplePredicate field="v7" operator="greaterThan" value="0.975"/>
          </Node>
         </Node>
         <Node id="17" score="0">
          <SimplePredicate field="v1" operator="greaterThan" value="0.255"/>
         </Node>
        </Node>
       </Node>
       <Node id="5">
        <SimplePredicate field="v1" operator="greaterThan" value="0.325"/>
        <Node id="10">
         <SimplePredicate field="v7" operator="lessOrEqual" value="0.295"/>
         <Node id="18" score="0">
          <SimplePredicate field="v7" operator="lessOrEqual" value="0.255"/>
         </Node>
         <Node id="19">
          <SimplePredicate field="v7" operator="greaterThan" value="0.255"/>
          <Node id="26" score="0">
           <SimplePredicate field="v0" operator="lessOrEqual" value="0.125"/>
          </Node>
          <Node id="27" score="1">
           <SimplePredicate field="v0" operator="greaterThan" value="0.125"/>
          </Node>
         </Node>
        </Node>
        <Node id="11">
         <SimplePredicate field="v7" operator="greaterThan" value="0.295"/>
         <Node id="20">
          <SimplePredicate field="v1" operator="lessOrEqual" value="1.3"/>
          <Node id="28" score="0">
           <SimplePredicate field="v6" operator="lessOrEqual" value="-0.085"/>
          </Node>
          <Node id="29">
           <SimplePredicate field="v6" operator="greaterThan" value="-0.085"/>
           <Node id="30">
            <SimplePredicate field="v7" operator="lessOrEqual" value="1.1"/>
            <Node id="32">
             <SimplePredicate field="v4" operator="lessOrEqual" value="0.15"/>
             <Node id="36" score="0">
              <SimplePredicate field="v5" operator="lessOrEqual" value="0.6"/>
             </Node>
             <Node id="37" score="1">
              <SimplePredicate field="v5" operator="greaterThan" value="0.6"/>
             </Node>
            </Node>
            <Node id="33">
             <SimplePredicate field="v4" operator="greaterThan" value="0.15"/>
             <Node id="38" score="0">
              <SimplePredicate field="v8" operator="lessOrEqual" value="-0.575"/>
             </Node>
             <Node id="39" score="1">
              <SimplePredicate field="v8" operator="greaterThan" value="-0.575"/>
             </Node>
            </Node>
           </Node>
           <Node id="31">
            <SimplePredicate field="v7" operator="greaterThan" value="1.1"/>
            <Node id="34" score="1">
             <SimplePredicate field="v8" operator="lessOrEqual" value="0.885"/>
            </Node>
            <Node id="35" score="0">
             <SimplePredicate field="v8" operator="greaterThan" value="0.885"/>
            </Node>
           </Node>
          </Node>
         </Node>
         <Node id="21" score="0">
          <SimplePredicate field="v1" operator="greaterThan" value="1.3"/>
         </Node>
        </Node>
       </Node>
      </Node>
      <Node id="3">
       <SimplePredicate field="v4" operator="greaterThan" value="0.995"/>
       <Node id="6">
        <SimplePredicate field="v4" operator="lessOrEqual" value="1.03"/>
        <Node id="12" score="1">
         <SimplePredicate field="v5" operator="lessOrEqual" value="0.96"/>
        </Node>
        <Node id="13" score="0">
         <SimplePredicate field="v5" operator="greaterThan" value="0.96"/>
        </Node>
       </Node>
       <Node id="7">
        <SimplePredicate field="v4" operator="greaterThan" value="1.03"/>
        <Node id="14">
         <SimplePredicate field="v2" operator="lessOrEqual" value="0.655"/>
         <Node id="22" score="0">
          <SimplePredicate field="v3" operator="lessOrEqual" value="0.665"/>
         </Node>
         <Node id="23" score="1">
          <SimplePredicate field="v3" operator="greaterThan" value="0.665"/>
         </Node>
        </Node>
        <Node id="15" score="0">
         <SimplePredicate field="v2" operator="greaterThan" value="0.655"/>
        </Node>
       </Node>
      </Node>
     </Node>
    </TreeModel>
   </Segment>
   <Segment id="5">
    <True/>
    <TreeModel modelName="randomForest_Model" functionName="classification" algorithmName="randomForest" splitCharacteristic="binarySplit">
     <MiningSchema>
      <MiningField name="label" usageType="predicted"/>
      <MiningField name="v0" usageType="active"/>
      <MiningField name="v1" usageType="active"/>
      <MiningField name="v2" usageType="active"/>
      <MiningField name="v3" usageType="active"/>
      <MiningField name="v4" usageType="active"/>
      <MiningField name="v5" usageType="active"/>
      <MiningField name="v6" usageType="active"/>
      <MiningField name="v7" usageType="active"/>
      <MiningField name="v8" usageType="active"/>
      <MiningField name="v9" usageType="active"/>
     </MiningSchema>
     <Node id="1">
      <True/>
      <Node id="2">
       <SimplePredicate field="v6" operator="lessOrEqual" value="1.045"/>
       <Node id="4">
        <SimplePredicate field="v5" operator="lessOrEqual" value="0.21"/>
        <Node id="8" score="0">
         <SimplePredicate field="v9" operator="lessOrEqual" value="0.535"/>
        </Node>
        <Node id="9">
         <SimplePredicate field="v9" operator="greaterThan" value="0.535"/>
         <Node id="14" score="0">
          <SimplePredicate field="v5" operator="lessOrEqual" value="-0.075"/>
         </Node>
         <Node id="15">
          <SimplePredicate field="v5" operator="greaterThan" value="-0.075"/>
          <Node id="20">
           <SimplePredicate field="v0" operator="lessOrEqual" value="0.57"/>
           <Node id="26" score="0">
            <SimplePredicate field="v3" operator="lessOrEqual" value="0.27"/>
           </Node>
           <Node id="27" score="1">
            <SimplePredicate field="v3" operator="greaterThan" value="0.27"/>
           </Node>
          </Node>
          <Node id="21" score="0">
           <SimplePredicate field="v0" operator="greaterThan" value="0.57"/>
          </Node>
         </Node>
        </Node>
       </Node>
       <Node id="5">
        <SimplePredicate field="v5" operator="greaterThan" value="0.21"/>
        <Node id="10" score="0">
         <SimplePredicate field="v4" operator="lessOrEqual" value="0.045"/>
        </Node>
        <Node id="11">
         <SimplePredicate field="v4" operator="greaterThan" value="0.045"/>
         <Node id="16">
          <SimplePredicate field="v7" operator="lessOrEqual" value="1.215"/>
          <Node id="22" score="0">
           <SimplePredicate field="v7" operator="lessOrEqual" value="0.145"/>
          </Node>
          <Node id="23">
           <SimplePredicate field="v7" operator="greaterThan" value="0.145"/>
           <Node id="28" score="0">
            <SimplePredicate field="v2" operator="lessOrEqual" value="0.205"/>
           </Node>
           <Node id="29">
            <SimplePredicate field="v2" operator="greaterThan" value="0.205"/>
            <Node id="32" score="0">
             <SimplePredicate field="v9" operator="lessOrEqual" value="-0.255"/>
            </Node>
            <Node id="33">
             <SimplePredicate field="v9" operator="greaterThan" value="-0.255"/>
             <Node id="34" score="0">
              <SimplePredicate field="v0" operator="lessOrEqual" value="-0.135"/>
             </Node>
             <Node id="35">
              <SimplePredicate field="v0" operator="greaterThan" value="-0.135"/>
              <Node id="36" score="0">
               <SimplePredicate field="v1" operator="lessOrEqual" value="0.025"/>
              </Node>
              <Node id="37" score="1">
               <SimplePredicate field="v1" operator="greaterThan" value="0.025"/>
              </Node>
             </Node>
            </Node>
           </Node>
          </Node>
         </Node>
         <Node id="17">
          <SimplePredicate field="v7" operator="greaterThan" value="1.215"/>
          <Node id="24">
           <SimplePredicate field="v8" operator="lessOrEqual" value="0.915"/>
           <Node id="30" score="1">
            <SimplePredicate field="v5" operator="lessOrEqual" value="0.815"/>
           </Node>
           <Node id="31" score="0">
            <SimplePredicate field="v5" operator="greaterThan" value="0.815"/>
           </Node>
          </Node>
          <Node id="25" score="0">
           <SimplePredicate field="v8" operator="greaterThan" value="0.915"/>
          </Node>
         </Node>
        </Node>
       </Node>
      </Node>
      <Node id="3">
       <SimplePredicate field="v6" operator="greaterThan" value="1.045"/>
       <Node id="6">
        <SimplePredicate field="v2" operator="lessOrEqual" value="0.75"/>
        <Node id="12">
         <SimplePredicate field="v6" operator="lessOrEqual" value="1.225"/>
         <Node id="18" score="0">
          <SimplePredicate field="v0" operator="lessOrEqual" value="0.07"/>
         </Node>
         <Node id="19" score="1">
          <SimplePredicate field="v0" operator="greaterThan" value="0.07"/>
         </Node>
        </Node>
        <Node id="13" score="0">
         <SimplePredicate field="v6" operator="greaterThan" value="1.225"/>
        </Node>
       </Node>
       <Node id="7" score="0">
        <SimplePredicate field="v2" operator="greaterThan" value="0.75"/>
       </Node>
      </Node>
     </Node>
    </TreeModel>
   </Segment>
   <Segment id="6">
    <True/>
    <TreeModel modelName="randomForest_Model" functionName="classification" algorithmName="randomForest" splitCharacteristic="binarySplit">
     <MiningSchema>
      <MiningField name="label" usageType="predicted"/>
      <MiningField name="v0" usageType="active"/>
      <MiningField name="v1" usageType="active"/>
      <MiningField name="v2" usageType="active"/>
      <MiningField name="v3" usageType="active"/>
      <MiningField name="v4" usageType="active"/>
      <MiningField name="v5" usageType="active"/>
      <MiningField name="v6" usageType="active"/>
      <MiningField name="v7" usageType="active"/>
      <MiningField name="v8" usageType="active"/>
      <MiningField name="v9" usageType="active"/>
     </MiningSchema>
     <Node id="1">
      <True/>
      <Node id="2">
       <SimplePredicate field="v1" operator="lessOrEqual" value="1.015"/>
       <Node id="4" score="0">
        <SimplePredicate field="v0" operator="lessOrEqual" value="0.255"/>
       </Node>
       <Node id="5">
        <SimplePredicate field="v0" operator="greaterThan" value="0.255"/>
        <Node id="8">
         <SimplePredicate field="v6" operator="lessOrEqual" value="0.285"/>
         <Node id="12">
          <SimplePredicate field="v8" operator="lessOrEqual" value="0.67"/>
          <Node id="18">
           <SimplePredicate field="v0" operator="lessOrEqual" value="0.51"/>
           <Node id="26" score="0">
            <SimplePredicate field="v7" operator="lessOrEqual" value="0.32"/>
           </Node>
           <Node id="27" score="1">
            <SimplePredicate field="v7" operator="greaterThan" value="0.32"/>
           </Node>
          </Node>
          <Node id="19" score="0">
           <SimplePredicate field="v0" operator="greaterThan" value="0.51"/>
          </Node>
         </Node>
         <Node id="13">
          <SimplePredicate field="v8" operator="greaterThan" value="0.67"/>
          <Node id="20" score="0">
           <SimplePredicate field="v7" operator="lessOrEqual" value="0.245"/>
          </Node>
          <Node id="21" score="1">
           <SimplePredicate field="v7" operator="greaterThan" value="0.245"/>
          </Node>
         </Node>
        </Node>
        <Node id="9">
         <SimplePredicate field="v6" operator="greaterThan" value="0.285"/>
         <Node id="14" score="0">
          <SimplePredicate field="v1" operator="lessOrEqual" value="0.205"/>
         </Node>
         <Node id="15">
          <SimplePredicate field="v1" operator="greaterThan" value="0.205"/>
          <Node id="22">
           <SimplePredicate field="v8" operator="lessOrEqual" value="1.17"/>
           <Node id="28" score="0">
            <SimplePredicate field="v4" operator="lessOrEqual" value="-0.205"/>
           </Node>
           <Node id="29">
            <SimplePredicate field="v4" operator="greaterThan" value="-0.205"/>
            <Node id="32">
             <SimplePredicate field="v4" operator="lessOrEqual" value="0.525"/>
             <Node id="36" score="1">
              <SimplePredicate field="v4" operator="lessOrEqual" value="0.515"/>
             </Node>
             <Node id="37">
              <SimplePredicate field="v4" operator="greaterThan" value="0.515"/>
              <Node id="38" score="1">
               <SimplePredicate field="v0" operator="lessOrEqual" value="0.75"/>
              </Node>
              <Node id="39">
               <SimplePredicate field="v0" operator="greaterThan" value="0.75"/>
               <Node id="40" score="0">
                <SimplePredicate field="v9" operator="lessOrEqual" value="0.5"/>
               </Node>
               <Node id="41" score="1">
                <SimplePredicate field="v9" operator="greaterThan" value="0.5"/>
               </Node>
              </Node>
             </Node>
            </Node>
            <Node id="33" score="1">
             <SimplePredicate field="v4" operator="greaterThan" value="0.525"/>
            </Node>
           </Node>
          </Node>
          <Node id="23">
           <SimplePredicate field="v8" operator="greaterThan" value="1.17"/>
           <Node id="30">
            <SimplePredicate field="v6" operator="lessOrEqual" value="1.015"/>
            <Node id="34" score="1">
             <SimplePredicate field="v3" operator="lessOrEqual" value="1.195"/>
            </Node>
            <Node id="35" score="0">
             <SimplePredicate field="v3" operator="greaterThan" value="1.195"/>
            </Node>
           </Node>
           <Node id="31" score="0">
            <SimplePredicate field="v6" operator="greaterThan" value="1.015"/>
           </Node>
          </Node>
         </Node>
        </Node>
       </Node>
      </Node>
      <Node id="3">
       <SimplePredicate field="v1" operator="greaterThan" value="1.015"/>
       <Node id="6">
        <SimplePredicate field="v5" operator="lessOrEqual" value="0.745"/>
        <Node id="10" score="0">
         <SimplePredicate field="v9" operator="lessOrEqual" value="0.52"/>
        </Node>
        <Node id="11">
         <SimplePredicate field="v9" operator="greaterThan" value="0.52"/>
         <Node id="16" score="1">
          <SimplePredicate field="v0" operator="lessOrEqual" value="0.605"/>
         </Node>
         <Node id="17">
          <SimplePredicate field="v0" operator="greaterThan" value="0.605"/>
          <Node id="24" score="1">
           <SimplePredicate field="v1" operator="lessOrEqual" value="1.085"/>
          </Node>
          <Node id="25" score="0">
           <SimplePredicate field="v1" operator="greaterThan" value="1.085"/>
          </Node>
         </Node>
        </Node>
       </Node>
       <Node id="7" score="0">
        <SimplePredicate field="v5" operator="greaterThan" value="0.745"/>
       </Node>
      </Node>
     </Node>
    </TreeModel>
   </Segment>
   <Segment id="7">
    <True/>
    <TreeModel modelName="randomForest_Model" functionName="classification" algorithmName="randomForest" splitCharacteristic="binarySplit">
     <MiningSchema>
      <MiningField name="label" usageType="predicted"/>
      <MiningField name="v0" usageType="active"/>
      <MiningField name="v1" usageType="active"/>
      <MiningField name="v2" usageType="active"/>
      <MiningField name="v3" usageType="active"/>
      <MiningField name="v4" usageType="active"/>
      <MiningField name="v5" usageType="active"/>
      <MiningField name="v6" usageType="active"/>
      <MiningField name="v7" usageType="active"/>
      <MiningField name="v8" usageType="active"/>
      <MiningField name="v9" usageType="active"/>
     </MiningSchema>
     <Node id="1">
      <True/>
      <Node id="2">
       <SimplePredicate field="v3" operator="lessOrEqual" value="0.985"/>
       <Node id="4">
        <SimplePredicate field="v7" operator="lessOrEqual" value="0.325"/>
        <Node id="8" score="0">
         <SimplePredicate field="v7" operator="lessOrEqual" value="0.185"/>
        </Node>
        <Node id="9">
         <SimplePredicate field="v7" operator="greaterThan" value="0.185"/>
         <Node id="14" score="0">
          <SimplePredicate field="v0" operator="lessOrEqual" value="0.62"/>
         </Node>
         <Node id="15">
          <SimplePredicate field="v0" operator="greaterThan" value="0.62"/>
          <Node id="20" score="0">
           <SimplePredicate field="v8" operator="lessOrEqual" value="0.305"/>
          </Node>
          <Node id="21" score="1">
           <SimplePredicate field="v8" operator="greaterThan" value="0.305"/>
          </Node>
         </Node>
        </Node>
       </Node>
       <Node id="5">
        <SimplePredicate field="v7" operator="greaterThan" value="0.325"/>
        <Node id="10" score="0">
         <SimplePredicate field="v1" operator="lessOrEqual" value="0.205"/>
        </Node>
        <Node id="11">
         <SimplePredicate field="v1" operator="greaterThan" value="0.205"/>
         <Node id="16">
          <SimplePredicate field="v4" operator="lessOrEqual" value="1.035"/>
          <Node id="22">
           <SimplePredicate field="v2" operator="lessOrEqual" value="0.22"/>
           <Node id="30" score="0">
            <SimplePredicate field="v9" operator="lessOrEqual" value="0.75"/>
           </Node>
           <Node id="31">
            <SimplePredicate field="v9" operator="greaterThan" value="0.75"/>
            <Node id="40" score="0">
             <SimplePredicate field="v0" operator="lessOrEqual" value="0.415"/>
            </Node>
            <Node id="41" score="1">
             <SimplePredicate field="v0" operator="greaterThan" value="0.415"/>
            </Node>
           </Node>
          </Node>
          <Node id="23">
           <SimplePredicate field="v2" operator="greaterThan" value="0.22"/>
           <Node id="32">
            <SimplePredicate field="v7" operator="lessOrEqual" value="0.34"/>
            <Node id="42" score="1">
             <SimplePredicate field="v8" operator="lessOrEqual" value="0.79"/>
            </Node>
            <Node id="43" score="0">
             <SimplePredicate field="v8" operator="greaterThan" value="0.79"/>
            </Node>
           </Node>
           <Node id="33">
            <SimplePredicate field="v7" operator="greaterThan" value="0.34"/>
            <Node id="44" score="0">
             <SimplePredicate field="v0" operator="lessOrEqual" value="-0.105"/>
            </Node>
            <Node id="45" score="1">
             <SimplePredicate field="v0" operator="greaterThan" value="-0.105"/>
            </Node>
           </Node>
          </Node>
         </Node>
         <Node id="17">
          <SimplePredicate field="v4" operator="greaterThan" value="1.035"/>
          <Node id="24">
           <SimplePredicate field="v7" operator="lessOrEqual" value="0.895"/>
           <Node id="34" score="0">
            <SimplePredicate field="v6" operator="lessOrEqual" value="0.325"/>
           </Node>
           <Node id="35" score="1">
            <SimplePredicate field="v6" operator="greaterThan" value="0.325"/>
           </Node>
          </Node>
          <Node id="25" score="0">
           <SimplePredicate field="v7" operator="greaterThan" value="0.895"/>
          </Node>
         </Node>
        </Node>
       </Node>
      </Node>
      <Node id="3">
       <SimplePredicate field="v3" operator="greaterThan" value="0.985"/>
       <Node id="6">
        <SimplePredicate field="v8" operator="lessOrEqual" value="0.955"/>
        <Node id="12">
         <SimplePredicate field="v8" operator="lessOrEqual" value="0.93"/>
         <Node id="18">
          <SimplePredicate field="v3" operator="lessOrEqual" value="1.08"/>
          <Node id="26">
           <SimplePredicate field="v3" operator="lessOrEqual" value="1.02"/>
           <Node id="36" score="0">
            <SimplePredicate field="v8" operator="lessOrEqual" value="0.41"/>
           </Node>
           <Node id="37" score="1">
            <SimplePredicate field="v8" operator="greaterThan" value="0.41"/>
           </Node>
          </Node>
          <Node id="27" score="1">
           <SimplePredicate field="v3" operator="greaterThan" value="1.02"/>
          </Node>
         </Node>
         <Node id="19">
          <SimplePredicate field="v3" operator="greaterThan" value="1.08"/>
          <Node id="28">
           <SimplePredicate field="v3" operator="lessOrEqual" value="1.13"/>
           <Node id="38" score="0">
            <SimplePredicate field="v5" operator="lessOrEqual" value="0.715"/>
           </Node>
           <Node id="39" score="1">
            <SimplePredicate field="v5" operator="greaterThan" value="0.715"/>
           </Node>
          </Node>
          <Node id="29" score="0">
           <SimplePredicate field="v3" operator="greaterThan" value="1.13"/>
          </Node>
         </Node>
        </Node>
        <Node id="13" score="1">
         <SimplePredicate field="v8" operator="greaterThan" value="0.93"/>
        </Node>
       </Node>
       <Node id="7" score="0">
        <SimplePredicate field="v8" operator="greaterThan" value="0.955"/>
       </Node>
      </Node>
     </Node>
    </TreeModel>
   </Segment>
   <Segment id="8">
    <True/>
    <TreeModel modelName="randomForest_Model" functionName="classification" algorithmName="randomForest" splitCharacteristic="binarySplit">
     <MiningSchema>
      <MiningField name="label" usageType="predicted"/>
      <MiningField name="v0" usageType="active"/>
      <MiningField name="v1" usageType="active"/>
      <MiningField name="v2" usageType="active"/>
      <MiningField name="v3" usageType="active"/>
      <MiningField name="v4" usageType="active"/>
      <MiningField name="v5" usageType="active"/>
      <MiningField name="v6" usageType="active"/>
      <MiningField name="v7" usageType="active"/>
      <MiningField name="v8" usageType="active"/>
      <MiningField name="v9" usageType="active"/>
     </MiningSchema>
     <Node id="1">
      <True/>
      <Node id="2">
       <SimplePredicate field="v7" operator="lessOrEqual" value="1.045"/>
       <Node id="4">
        <SimplePredicate field="v3" operator="lessOrEqual" value="0.29"/>
        <Node id="6" score="0">
         <SimplePredicate field="v3" operator="lessOrEqual" value="0.195"/>
        </Node>
        <Node id="7">
         <SimplePredicate field="v3" operator="greaterThan" value="0.195"/>
         <Node id="10" score="0">
          <SimplePredicate field="v6" operator="lessOrEqual" value="0.28"/>
         </Node>
         <Node id="11">
          <SimplePredicate field="v6" operator="greaterThan" value="0.28"/>
          <Node id="14" score="1">
           <SimplePredicate field="v8" operator="lessOrEqual" value="0.36"/>
          </Node>
          <Node id="15" score="0">
           <SimplePredicate field="v8" operator="greaterThan" value="0.36"/>
          </Node>
         </Node>
        </Node>
       </Node>
       <Node id="5">
        <SimplePredicate field="v3" operator="greaterThan" value="0.29"/>
        <Node id="8" score="0">
         <SimplePredicate field="v7" operator="lessOrEqual" value="0.24"/>
        </Node>
        <Node id="9">
         <SimplePredicate field="v7" operator="greaterThan" value="0.24"/>
         <Node id="12">
          <SimplePredicate field="v3" operator="lessOrEqual" value="1.25"/>
          <Node id="16">
           <SimplePredicate field="v0" operator="lessOrEqual" value="0.18"/>
           <Node id="20" score="0">
            <SimplePredicate field="v6" operator="lessOrEqual" value="0.945"/>
           </Node>
           <Node id="21" score="1">
            <SimplePredicate field="v6" operator="greaterThan" value="0.945"/>
           </Node>
          </Node>
          <Node id="17">
           <SimplePredicate field="v0" operator="greaterThan" value="0.18"/>
           <Node id="22" score="0">
            <SimplePredicate field="v2" operator="lessOrEqual" value="-0.035"/>
           </Node>
           <Node id="23">
            <SimplePredicate field="v2" operator="greaterThan" value="-0.035"/>
            <Node id="26">
             <SimplePredicate field="v6" operator="lessOrEqual" value="0.295"/>
             <Node id="28" score="1">
              <SimplePredicate field="v3" operator="lessOrEqual" value="0.965"/>
             </Node>
             <Node id="29" score="0">
              <SimplePredicate field="v3" operator="greaterThan" value="0.965"/>
             </Node>
            </Node>
            <Node id="27" score="1">
             <SimplePredicate field="v6" operator="greaterThan" value="0.295"/>
            </Node>
           </Node>
          </Node>
         </Node>
         <Node id="13">
          <SimplePredicate field="v3" operator="greaterThan" value="1.25"/>
          <Node id="18">
           <SimplePredicate field="v8" operator="lessOrEqual" value="1.16"/>
           <Node id="24" score="0">
            <SimplePredicate field="v4" operator="lessOrEqual" value="0.29"/>
           </Node>
           <Node id="25" score="1">
            <SimplePredicate field="v4" operator="greaterThan" value="0.29"/>
           </Node>
          </Node>
          <Node id="19" score="0">
           <SimplePredicate field="v8" operator="greaterThan" value="1.16"/>
          </Node>
         </Node>
        </Node>
       </Node>
      </Node>
      <Node id="3" score="0">
       <SimplePredicate field="v7" operator="greaterThan" value="1.045"/>
      </Node>
     </Node>
    </TreeModel>
   </Segment>
   <Segment id="9">
    <True/>
    <TreeModel modelName="randomForest_Model" functionName="classification" algorithmName="randomForest" splitCharacteristic="binarySplit">
     <MiningSchema>
      <MiningField name="label" usageType="predicted"/>
      <MiningField name="v0" usageType="active"/>
      <MiningField name="v1" usageType="active"/>
      <MiningField name="v2" usageType="active"/>
      <MiningField name="v3" usageType="active"/>
      <MiningField name="v4" usageType="active"/>
      <MiningField name="v5" usageType="active"/>
      <MiningField name="v6" usageType="active"/>
      <MiningField name="v7" usageType="active"/>
      <MiningField name="v8" usageType="active"/>
      <MiningField name="v9" usageType="active"/>
     </MiningSchema>
     <Node id="1">
      <True/>
      <Node id="2">
       <SimplePredicate field="v0" operator="lessOrEqual" value="1.025"/>
       <Node id="4">
        <SimplePredicate field="v7" operator="lessOrEqual" value="0.325"/>
        <Node id="8" score="0">
         <SimplePredicate field="v0" operator="lessOrEqual" value="0.465"/>
        </Node>
        <Node id="9">
         <SimplePredicate field="v0" operator="greaterThan" value="0.465"/>
         <Node id="14">
          <SimplePredicate field="v0" operator="lessOrEqual" value="0.64"/>
          <Node id="22" score="0">
           <SimplePredicate field="v9" operator="lessOrEqual" value="0.335"/>
          </Node>
          <Node id="23">
           <SimplePredicate field="v9" operator="greaterThan" value="0.335"/>
           <Node id="34" score="0">
            <SimplePredicate field="v2" operator="lessOrEqual" value="0.485"/>
           </Node>
           <Node id="35" score="1">
            <SimplePredicate field="v2" operator="greaterThan" value="0.485"/>
           </Node>
          </Node>
         </Node>
         <Node id="15">
          <SimplePredicate field="v0" operator="greaterThan" value="0.64"/>
          <Node id="24" score="0">
           <SimplePredicate field="v1" operator="lessOrEqual" value="0.51"/>
          </Node>
          <Node id="25">
           <SimplePredicate field="v1" operator="greaterThan" value="0.51"/>
           <Node id="36" score="0">
            <SimplePredicate field="v5" operator="lessOrEqual" value="0.66"/>
           </Node>
           <Node id="37" score="1">
            <SimplePredicate field="v5" operator="greaterThan" value="0.66"/>
           </Node>
          </Node>
         </Node>
        </Node>
       </Node>
       <Node id="5">
        <SimplePredicate field="v7" operator="greaterThan" value="0.325"/>
        <Node id="10">
         <SimplePredicate field="v7" operator="lessOrEqual" value="1.05"/>
         <Node id="16">
          <SimplePredicate field="v8" operator="lessOrEqual" value="0.31"/>
          <Node id="26" score="0">
           <SimplePredicate field="v4" operator="lessOrEqual" value="0.26"/>
          </Node>
          <Node id="27">
           <SimplePredicate field="v4" operator="greaterThan" value="0.26"/>
           <Node id="38" score="0">
            <SimplePredicate field="v5" operator="lessOrEqual" value="0.51"/>
           </Node>
           <Node id="39">
            <SimplePredicate field="v5" operator="greaterThan" value="0.51"/>
            <Node id="44" score="0">
             <SimplePredicate field="v1" operator="lessOrEqual" value="0.06"/>
            </Node>
            <Node id="45" score="1">
             <SimplePredicate field="v1" operator="greaterThan" value="0.06"/>
            </Node>
           </Node>
          </Node>
         </Node>
         <Node id="17">
          <SimplePredicate field="v8" operator="greaterThan" value="0.31"/>
          <Node id="28" score="0">
           <SimplePredicate field="v0" operator="lessOrEqual" value="0.19"/>
          </Node>
          <Node id="29">
           <SimplePredicate field="v0" operator="greaterThan" value="0.19"/>
           <Node id="40" score="0">
            <SimplePredicate field="v5" operator="lessOrEqual" value="-0.125"/>
           </Node>
           <Node id="41" score="1">
            <SimplePredicate field="v5" operator="greaterThan" value="-0.125"/>
           </Node>
          </Node>
         </Node>
        </Node>
        <Node id="11">
         <SimplePredicate field="v7" operator="greaterThan" value="1.05"/>
         <Node id="18">
          <SimplePredicate field="v8" operator="lessOrEqual" value="0.89"/>
          <Node id="30" score="0">
           <SimplePredicate field="v1" operator="lessOrEqual" value="0.305"/>
          </Node>
          <Node id="31">
           <SimplePredicate field="v1" operator="greaterThan" value="0.305"/>
           <Node id="42" score="0">
            <SimplePredicate field="v4" operator="lessOrEqual" value="0.38"/>
           </Node>
           <Node id="43" score="1">
            <SimplePredicate field="v4" operator="greaterThan" value="0.38"/>
           </Node>
          </Node>
         </Node>
         <Node id="19" score="0">
          <SimplePredicate field="v8" operator="greaterThan" value="0.89"/>
         </Node>
        </Node>
       </Node>
      </Node>
      <Node id="3">
       <SimplePredicate field="v0" operator="greaterThan" value="1.025"/>
       <Node id="6">
        <SimplePredicate field="v7" operator="lessOrEqual" value="0.78"/>
        <Node id="12">
         <SimplePredicate field="v6" operator="lessOrEqual" value="0.925"/>
         <Node id="20" score="0">
          <SimplePredicate field="v2" operator="lessOrEqual" value="0.985"/>
         </Node>
         <Node id="21">
          <SimplePredicate field="v2" operator="greaterThan" value="0.985"/>
          <Node id="32" score="0">
           <SimplePredicate field="v0" operator="lessOrEqual" value="1.235"/>
          </Node>
          <Node id="33" score="1">
           <SimplePredicate field="v0" operator="greaterThan" value="1.235"/>
          </Node>
         </Node>
        </Node>
        <Node id="13" score="1">
         <SimplePredicate field="v6" operator="greaterThan" value="0.925"/>
        </Node>
       </Node>
       <Node id="7" score="0">
        <SimplePredicate field="v7" operator="greaterThan" value="0.78"/>
       </Node>
      </Node>
     </Node>
    </TreeModel>
   </Segment>
   <Segment id="10">
    <True/>
    <TreeModel modelName="randomForest_Model" functionName="classification" algorithmName="randomForest" splitCharacteristic="binarySplit">
     <MiningSchema>
      <MiningField name="label" usageType="predicted"/>
      <MiningField name="v0" usageType="active"/>
      <MiningField name="v1" usageType="active"/>
      <MiningField name="v2" usageType="active"/>
      <MiningField name="v3" usageType="active"/>
      <MiningField name="v4" usageType="active"/>
      <MiningField name="v5" usageType="active"/>
      <MiningField name="v6" usageType="active"/>
      <MiningField name="v7" usageType="active"/>
      <MiningField name="v8" usageType="active"/>
      <MiningField name="v9" usageType="active"/>
     </MiningSchema>
     <Node id="1">
      <True/>
      <Node id="2">
       <SimplePredicate field="v7" operator="lessOrEqual" value="0.99"/>
       <Node id="4" score="0">
        <SimplePredicate field="v8" operator="lessOrEqual" value="0.14"/>
       </Node>
       <Node id="5">
        <SimplePredicate field="v8" operator="greaterThan" value="0.14"/>
        <Node id="8" score="0">
         <SimplePredicate field="v9" operator="lessOrEqual" value="0.265"/>
        </Node>
        <Node id="9">
         <SimplePredicate field="v9" operator="greaterThan" value="0.265"/>
         <Node id="12">
          <SimplePredicate field="v3" operator="lessOrEqual" value="0.2"/>
          <Node id="16" score="0">
           <SimplePredicate field="v6" operator="lessOrEqual" value="0.535"/>
          </Node>
          <Node id="17">
           <SimplePredicate field="v6" operator="greaterThan" value="0.535"/>
           <Node id="20" score="0">
            <SimplePredicate field="v3" operator="lessOrEqual" value="-0.08"/>
           </Node>
           <Node id="21">
            <SimplePredicate field="v3" operator="greaterThan" value="-0.08"/>
            <Node id="26" score="1">
             <SimplePredicate field="v2" operator="lessOrEqual" value="0.535"/>
            </Node>
            <Node id="27" score="0">
             <SimplePredicate field="v2" operator="greaterThan" value="0.535"/>
            </Node>
           </Node>
          </Node>
         </Node>
         <Node id="13">
          <SimplePredicate field="v3" operator="greaterThan" value="0.2"/>
          <Node id="18">
           <SimplePredicate field="v8" operator="lessOrEqual" value="1.15"/>
           <Node id="22">
            <SimplePredicate field="v4" operator="lessOrEqual" value="0.145"/>
            <Node id="28" score="0">
             <SimplePredicate field="v5" operator="lessOrEqual" value="0.675"/>
            </Node>
            <Node id="29" score="1">
             <SimplePredicate field="v5" operator="greaterThan" value="0.675"/>
            </Node>
           </Node>
           <Node id="23">
            <SimplePredicate field="v4" operator="greaterThan" value="0.145"/>
            <Node id="30" score="0">
             <SimplePredicate field="v7" operator="lessOrEqual" value="-0.435"/>
            </Node>
            <Node id="31">
             <SimplePredicate field="v7" operator="greaterThan" value="-0.435"/>
             <Node id="34" score="1">
              <SimplePredicate field="v5" operator="lessOrEqual" value="0.97"/>
             </Node>
             <Node id="35">
              <SimplePredicate field="v5" operator="greaterThan" value="0.97"/>
              <Node id="36" score="0">
               <SimplePredicate field="v1" operator="lessOrEqual" value="0.145"/>
              </Node>
              <Node id="37" score="1">
               <SimplePredicate field="v1" operator="greaterThan" value="0.145"/>
              </Node>
             </Node>
            </Node>
           </Node>
          </Node>
          <Node id="19">
           <SimplePredicate field="v8" operator="greaterThan" value="1.15"/>
           <Node id="24" score="0">
            <SimplePredicate field="v4" operator="lessOrEqual" value="0.435"/>
           </Node>
           <Node id="25">
            <SimplePredicate field="v4" operator="greaterThan" value="0.435"/>
            <Node id="32" score="1">
             <SimplePredicate field="v9" operator="lessOrEqual" value="1.11"/>
            </Node>
            <Node id="33" score="0">
             <SimplePredicate field="v9" operator="greaterThan" value="1.11"/>
            </Node>
           </Node>
          </Node>
         </Node>
        </Node>
       </Node>
      </Node>
      <Node id="3">
       <SimplePredicate field="v7" operator="greaterThan" value="0.99"/>
       <Node id="6">
        <SimplePredicate field="v3" operator="lessOrEqual" value="0.815"/>
        <Node id="10">
         <SimplePredicate field="v4" operator="lessOrEqual" value="0.825"/>
         <Node id="14" score="0">
          <SimplePredicate field="v1" operator="lessOrEqual" value="0.46"/>
         </Node>
         <Node id="15" score="1">
          <SimplePredicate field="v1" operator="greaterThan" value="0.46"/>
         </Node>
        </Node>
        <Node id="11" score="1">
         <SimplePredicate field="v4" operator="greaterThan" value="0.825"/>
        </Node>
       </Node>
       <Node id="7" score="0">
        <SimplePredicate field="v3" operator="greaterThan" value="0.815"/>
       </Node>
      </Node>
     </Node>
    </TreeModel>
   </Segment>
   <Segment id="11">
    <True/>
    <TreeModel modelName="randomForest_Model" functionName="classification" algorithmName="randomForest" splitCharacteristic="binarySplit">
     <MiningSchema>
      <MiningField name="label" usageType="predicted"/>
      <MiningField name="v0" usageType="active"/>
      <MiningField name="v1" usageType="active"/>
      <MiningField name="v2" usageType="active"/>
      <MiningField name="v3" usageType="active"/>
      <MiningField name="v4" usageType="active"/>
      <MiningField name="v5" usageType="active"/>
      <MiningField name="v6" usageType="active"/>
      <MiningField name="v7" usageType="active"/>
      <MiningField name="v8" usageType="active"/>
      <MiningField name="v9" usageType="active"/>
     </MiningSchema>
     <Node id="1">
      <True/>
      <Node id="2">
       <SimplePredicate field="v0" operator="lessOrEqual" value="1.025"/>
       <Node id="4">
        <SimplePredicate field="v3" operator="lessOrEqual" value="0.15"/>
        <Node id="8" score="0">
         <SimplePredicate field="v5" operator="lessOrEqual" value="0.76"/>
        </Node>
        <Node id="9">
         <SimplePredicate field="v5" operator="greaterThan" value="0.76"/>
         <Node id="14" score="0">
          <SimplePredicate field="v0" operator="lessOrEqual" value="0.305"/>
         </Node>
         <Node id="15" score="1">
          <SimplePredicate field="v0" operator="greaterThan" value="0.305"/>
         </Node>
        </Node>
       </Node>
       <Node id="5">
        <SimplePredicate field="v3" operator="greaterThan" value="0.15"/>
        <Node id="10">
         <SimplePredicate field="v5" operator="lessOrEqual" value="0.19"/>
         <Node id="16" score="0">
          <SimplePredicate field="v4" operator="lessOrEqual" value="0.48"/>
         </Node>
         <Node id="17">
          <SimplePredicate field="v4" operator="greaterThan" value="0.48"/>
          <Node id="22">
           <SimplePredicate field="v4" operator="lessOrEqual" value="1.04"/>
           <Node id="26" score="0">
            <SimplePredicate field="v1" operator="lessOrEqual" value="-0.435"/>
           </Node>
           <Node id="27" score="1">
            <SimplePredicate field="v1" operator="greaterThan" value="-0.435"/>
           </Node>
          </Node>
          <Node id="23" score="0">
           <SimplePredicate field="v4" operator="greaterThan" value="1.04"/>
          </Node>
         </Node>
        </Node>
        <Node id="11">
         <SimplePredicate field="v5" operator="greaterThan" value="0.19"/>
         <Node id="18">
          <SimplePredicate field="v1" operator="lessOrEqual" value="1.3"/>
          <Node id="24">
           <SimplePredicate field="v7" operator="lessOrEqual" value="0.35"/>
           <Node id="28" score="0">
            <SimplePredicate field="v2" operator="lessOrEqual" value="0.795"/>
           </Node>
           <Node id="29">
            <SimplePredicate field="v2" operator="greaterThan" value="0.795"/>
            <Node id="32" score="0">
             <SimplePredicate field="v4" operator="lessOrEqual" value="0.155"/>
            </Node>
            <Node id="33" score="1">
             <SimplePredicate field="v4" operator="greaterThan" value="0.155"/>
            </Node>
           </Node>
          </Node>
          <Node id="25">
           <SimplePredicate field="v7" operator="greaterThan" value="0.35"/>
           <Node id="30" score="0">
            <SimplePredicate field="v6" operator="lessOrEqual" value="0.02"/>
           </Node>
           <Node id="31">
            <SimplePredicate field="v6" operator="greaterThan" value="0.02"/>
            <Node id="34" score="0">
             <SimplePredicate field="v2" operator="lessOrEqual" value="-0.19"/>
            </Node>
            <Node id="35">
             <SimplePredicate field="v2" operator="greaterThan" value="-0.19"/>
             <Node id="36">
              <SimplePredicate field="v2" operator="lessOrEqual" value="1.235"/>
              <Node id="38" score="1">
               <SimplePredicate field="v6" operator="lessOrEqual" value="1.5"/>
              </Node>
              <Node id="39" score="0">
               <SimplePredicate field="v6" operator="greaterThan" value="1.5"/>
              </Node>
             </Node>
             <Node id="37" score="0">
              <SimplePredicate field="v2" operator="greaterThan" value="1.235"/>
             </Node>
            </Node>
           </Node>
          </Node>
         </Node>
         <Node id="19" score="0">
          <SimplePredicate field="v1" operator="greaterThan" value="1.3"/>
         </Node>
        </Node>
       </Node>
      </Node>
      <Node id="3">
       <SimplePredicate field="v0" operator="greaterThan" value="1.025"/>
       <Node id="6">
        <SimplePredicate field="v1" operator="lessOrEqual" value="0.92"/>
        <Node id="12" score="0">
         <SimplePredicate field="v7" operator="lessOrEqual" value="0.3"/>
        </Node>
        <Node id="13">
         <SimplePredicate field="v7" operator="greaterThan" value="0.3"/>
         <Node id="20" score="0">
          <SimplePredicate field="v1" operator="lessOrEqual" value="0.685"/>
         </Node>
         <Node id="21" score="1">
          <SimplePredicate field="v1" operator="greaterThan" value="0.685"/>
         </Node>
        </Node>
       </Node>
       <Node id="7" score="0">
        <SimplePredicate field="v1" operator="greaterThan" value="0.92"/>
       </Node>
      </Node>
     </Node>
    </TreeModel>
   </Segment>
   <Segment id="12">
    <True/>
    <TreeModel modelName="randomForest_Model" functionName="classification" algorithmName="randomForest" splitCharacteristic="binarySplit">
     <MiningSchema>
      <MiningField name="label" usageType="predicted"/>
      <MiningField name="v0" usageType="active"/>
      <MiningField name="v1" usageType="active"/>
      <MiningField name="v2" usageType="active"/>
      <MiningField name="v3" usageType="active"/>
      <MiningField name="v4" usageType="active"/>
      <MiningField name="v5" usageType="active"/>
      <MiningField name="v6" usageType="active"/>
      <MiningField name="v7" usageType="active"/>
      <MiningField name="v8" usageType="active"/>
      <MiningField name="v9" usageType="active"/>
     </MiningSchema>
     <Node id="1">
      <True/>
      <Node id="2">
       <SimplePredicate field="v1" operator="lessOrEqual" value="1.015"/>
       <Node id="4">
        <SimplePredicate field="v8" operator="lessOrEqual" value="0.31"/>
        <Node id="8" score="0">
         <SimplePredicate field="v4" operator="lessOrEqual" value="0.735"/>
        </Node>
        <Node id="9">
         <SimplePredicate field="v4" operator="greaterThan" value="0.735"/>
         <Node id="16" score="0">
          <SimplePredicate field="v2" operator="lessOrEqual" value="0.38"/>
         </Node>
         <Node id="17">
          <SimplePredicate field="v2" operator="greaterThan" value="0.38"/>
          <Node id="26" score="0">
           <SimplePredicate field="v8" operator="lessOrEqual" value="0.025"/>
          </Node>
          <Node id="27" score="1">
           <SimplePredicate field="v8" operator="greaterThan" value="0.025"/>
          </Node>
         </Node>
        </Node>
       </Node>
       <Node id="5">
        <SimplePredicate field="v8" operator="greaterThan" value="0.31"/>
        <Node id="10">
         <SimplePredicate field="v9" operator="lessOrEqual" value="0.335"/>
         <Node id="18" score="0">
          <SimplePredicate field="v9" operator="lessOrEqual" value="0.245"/>
         </Node>
         <Node id="19">
          <SimplePredicate field="v9" operator="greaterThan" value="0.245"/>
          <Node id="28" score="0">
           <SimplePredicate field="v3" operator="lessOrEqual" value="0.175"/>
          </Node>
          <Node id="29" score="1">
           <SimplePredicate field="v3" operator="greaterThan" value="0.175"/>
          </Node>
         </Node>
        </Node>
        <Node id="11">
         <SimplePredicate field="v9" operator="greaterThan" value="0.335"/>
         <Node id="20">
          <SimplePredicate field="v5" operator="lessOrEqual" value="0.125"/>
          <Node id="30" score="0">
           <SimplePredicate field="v0" operator="lessOrEqual" value="0.355"/>
          </Node>
          <Node id="31">
           <SimplePredicate field="v0" operator="greaterThan" value="0.355"/>
           <Node id="36" score="1">
            <SimplePredicate field="v0" operator="lessOrEqual" value="0.51"/>
           </Node>
           <Node id="37" score="0">
            <SimplePredicate field="v0" operator="greaterThan" value="0.51"/>
           </Node>
          </Node>
         </Node>
         <Node id="21">
          <SimplePredicate field="v5" operator="greaterThan" value="0.125"/>
          <Node id="32">
           <SimplePredicate field="v2" operator="lessOrEqual" value="1.225"/>
           <Node id="38" score="0">
            <SimplePredicate field="v1" operator="lessOrEqual" value="0.015"/>
           </Node>
           <Node id="39">
            <SimplePredicate field="v1" operator="greaterThan" value="0.015"/>
            <Node id="40">
             <SimplePredicate field="v7" operator="lessOrEqual" value="0.335"/>
             <Node id="42" score="0">
              <SimplePredicate field="v5" operator="lessOrEqual" value="0.705"/>
             </Node>
             <Node id="43" score="1">
              <SimplePredicate field="v5" operator="greaterThan" value="0.705"/>
             </Node>
            </Node>
            <Node id="41" score="1">
             <SimplePredicate field="v7" operator="greaterThan" value="0.335"/>
            </Node>
           </Node>
          </Node>
          <Node id="33" score="0">
           <SimplePredicate field="v2" operator="greaterThan" value="1.225"/>
          </Node>
         </Node>
        </Node>
       </Node>
      </Node>
      <Node id="3">
       <SimplePredicate field="v1" operator="greaterThan" value="1.015"/>
       <Node id="6">
        <SimplePredicate field="v3" operator="lessOrEqual" value="0.905"/>
        <Node id="12" score="0">
         <SimplePredicate field="v2" operator="lessOrEqual" value="0.515"/>
        </Node>
        <Node id="13">
         <SimplePredicate field="v2" operator="greaterThan" value="0.515"/>
         <Node id="22">
          <SimplePredicate field="v9" operator="lessOrEqual" value="0.955"/>
          <Node id="34" score="0">
           <SimplePredicate field="v9" operator="lessOrEqual" value="0.355"/>
          </Node>
          <Node id="35" score="1">
           <SimplePredicate field="v9" operator="greaterThan" value="0.355"/>
          </Node>
         </Node>
         <Node id="23" score="0">
          <SimplePredicate field="v9" operator="greaterThan" value="0.955"/>
         </Node>
        </Node>
       </Node>
       <Node id="7">
        <SimplePredicate field="v3" operator="greaterThan" value="0.905"/>
        <Node id="14">
         <SimplePredicate field="v8" operator="lessOrEqual" value="0.875"/>
         <Node id="24" score="1">
          <SimplePredicate field="v1" operator="lessOrEqual" value="1.185"/>
         </Node>
         <Node id="25" score="0">
          <SimplePredicate field="v1" operator="greaterThan" value="1.185"/>
         </Node>
        </Node>
        <Node id="15" score="0">
         <SimplePredicate field="v8" operator="greaterThan" value="0.875"/>
        </Node>
       </Node>
      </Node>
     </Node>
    </TreeModel>
   </Segment>
   <Segment id="13">
    <True/>
    <TreeModel modelName="randomForest_Model" functionName="classification" algorithmName="randomForest" splitCharacteristic="binarySplit">
     <MiningSchema>
      <MiningField name="label" usageType="predicted"/>
      <MiningField name="v0" usageType="active"/>
      <MiningField name="v1" usageType="active"/>
      <MiningField name="v2" usageType="active"/>
      <MiningField name="v3" usageType="active"/>
      <MiningField name="v4" usageType="active"/>
      <MiningField name="v5" usageType="active"/>
      <MiningField name="v6" usageType="active"/>
      <MiningField name="v7" usageType="active"/>
      <MiningField name="v8" usageType="active"/>
      <MiningField name="v9" usageType="active"/>
     </MiningSchema>
     <Node id="1">
      <True/>
      <Node id="2">
       <SimplePredicate field="v1" operator="lessOrEqual" value="1.085"/>
       <Node id="4">
        <SimplePredicate field="v3" operator="lessOrEqual" value="0.145"/>
        <Node id="8" score="0">
         <SimplePredicate field="v4" operator="lessOrEqual" value="0.92"/>
        </Node>
        <Node id="9">
         <SimplePredicate field="v4" operator="greaterThan" value="0.92"/>
         <Node id="14">
          <SimplePredicate field="v2" operator="lessOrEqual" value="0.255"/>
          <Node id="22" score="1">
           <SimplePredicate field="v0" operator="lessOrEqual" value="0.635"/>
          </Node>
          <Node id="23" score="0">
           <SimplePredicate field="v0" operator="greaterThan" value="0.635"/>
          </Node>
         </Node>
         <Node id="15" score="0">
          <SimplePredicate field="v2" operator="greaterThan" value="0.255"/>
         </Node>
        </Node>
       </Node>
       <Node id="5">
        <SimplePredicate field="v3" operator="greaterThan" value="0.145"/>
        <Node id="10">
         <SimplePredicate field="v4" operator="lessOrEqual" value="0.31"/>
         <Node id="16" score="0">
          <SimplePredicate field="v5" operator="lessOrEqual" value="0.445"/>
         </Node>
         <Node id="17">
          <SimplePredicate field="v5" operator="greaterThan" value="0.445"/>
          <Node id="24" score="0">
           <SimplePredicate field="v4" operator="lessOrEqual" value="0.03"/>
          </Node>
          <Node id="25">
           <SimplePredicate field="v4" operator="greaterThan" value="0.03"/>
           <Node id="30" score="0">
            <SimplePredicate field="v2" operator="lessOrEqual" value="0.29"/>
           </Node>
           <Node id="31" score="1">
            <SimplePredicate field="v2" operator="greaterThan" value="0.29"/>
           </Node>
          </Node>
         </Node>
        </Node>
        <Node id="11">
         <SimplePredicate field="v4" operator="greaterThan" value="0.31"/>
         <Node id="18">
          <SimplePredicate field="v9" operator="lessOrEqual" value="1.16"/>
          <Node id="26" score="0">
           <SimplePredicate field="v9" operator="lessOrEqual" value="-0.02"/>
          </Node>
          <Node id="27">
           <SimplePredicate field="v9" operator="greaterThan" value="-0.02"/>
           <Node id="32" score="0">
            <SimplePredicate field="v0" operator="lessOrEqual" value="0.03"/>
           </Node>
           <Node id="33">
            <SimplePredicate field="v0" operator="greaterThan" value="0.03"/>
            <Node id="36">
             <SimplePredicate field="v2" operator="lessOrEqual" value="1.205"/>
             <Node id="38" score="0">
              <SimplePredicate field="v7" operator="lessOrEqual" value="0.01"/>
             </Node>
             <Node id="39" score="1">
              <SimplePredicate field="v7" operator="greaterThan" value="0.01"/>
             </Node>
            </Node>
            <Node id="37" score="0">
             <SimplePredicate field="v2" operator="greaterThan" value="1.205"/>
            </Node>
           </Node>
          </Node>
         </Node>
         <Node id="19">
          <SimplePredicate field="v9" operator="greaterThan" value="1.16"/>
          <Node id="28">
           <SimplePredicate field="v7" operator="lessOrEqual" value="1.075"/>
           <Node id="34" score="0">
            <SimplePredicate field="v8" operator="lessOrEqual" value="0.19"/>
           </Node>
           <Node id="35" score="1">
            <SimplePredicate field="v8" operator="greaterThan" value="0.19"/>
           </Node>
          </Node>
          <Node id="29" score="0">
           <SimplePredicate field="v7" operator="greaterThan" value="1.075"/>
          </Node>
         </Node>
        </Node>
       </Node>
      </Node>
      <Node id="3">
       <SimplePredicate field="v1" operator="greaterThan" value="1.085"/>
       <Node id="6">
        <SimplePredicate field="v2" operator="lessOrEqual" value="0.745"/>
        <Node id="12" score="0">
         <SimplePredicate field="v2" operator="lessOrEqual" value="0.385"/>
        </Node>
        <Node id="13">
         <SimplePredicate field="v2" operator="greaterThan" value="0.385"/>
         <Node id="20" score="0">
          <SimplePredicate field="v6" operator="lessOrEqual" value="0.5"/>
         </Node>
         <Node id="21" score="1">
          <SimplePredicate field="v6" operator="greaterThan" value="0.5"/>
         </Node>
        </Node>
       </Node>
       <Node id="7" score="0">
        <SimplePredicate field="v2" operator="greaterThan" value="0.745"/>
       </Node>
      </Node>
     </Node>
    </TreeModel>
   </Segment>
   <Segment id="14">
    <True/>
    <TreeModel modelName="randomForest_Model" functionName="classification" algorithmName="randomForest" splitCharacteristic="binarySplit">
     <MiningSchema>
      <MiningField name="label" usageType="predicted"/>
      <MiningField name="v0" usageType="active"/>
      <MiningField name="v1" usageType="active"/>
      <MiningField name="v2" usageType="active"/>
      <MiningField name="v3" usageType="active"/>
      <MiningField name="v4" usageType="active"/>
      <MiningField name="v5" usageType="active"/>
      <MiningField name="v6" usageType="active"/>
      <MiningField name="v7" usageType="active"/>
      <MiningField name="v8" usageType="active"/>
      <MiningField name="v9" usageType="active"/>
     </MiningSchema>
     <Node id="1">
      <True/>
      <Node id="2">
       <SimplePredicate field="v8" operator="lessOrEqual" value="1.075"/>
       <Node id="4">
        <SimplePredicate field="v8" operator="lessOrEqual" value="0.375"/>
        <Node id="8">
         <SimplePredicate field="v5" operator="lessOrEqual" value="0.9"/>
         <Node id="14" score="0">
          <SimplePredicate field="v7" operator="lessOrEqual" value="0.825"/>
         </Node>
         <Node id="15">
          <SimplePredicate field="v7" operator="greaterThan" value="0.825"/>
          <Node id="24" score="1">
           <SimplePredicate field="v7" operator="lessOrEqual" value="0.895"/>
          </Node>
          <Node id="25" score="0">
           <SimplePredicate field="v7" operator="greaterThan" value="0.895"/>
          </Node>
         </Node>
        </Node>
        <Node id="9">
         <SimplePredicate field="v5" operator="greaterThan" value="0.9"/>
         <Node id="16" score="1">
          <SimplePredicate field="v5" operator="lessOrEqual" value="1.015"/>
         </Node>
         <Node id="17" score="0">
          <SimplePredicate field="v5" operator="greaterThan" value="1.015"/>
         </Node>
        </Node>
       </Node>
       <Node id="5">
        <SimplePredicate field="v8" operator="greaterThan" value="0.375"/>
        <Node id="10">
         <SimplePredicate field="v4" operator="lessOrEqual" value="0.225"/>
         <Node id="18" score="0">
          <SimplePredicate field="v7" operator="lessOrEqual" value="0.81"/>
         </Node>
         <Node id="19">
          <SimplePredicate field="v7" operator="greaterThan" value="0.81"/>
          <Node id="26" score="1">
           <SimplePredicate field="v6" operator="lessOrEqual" value="0.77"/>
          </Node>
          <Node id="27" score="0">
           <SimplePredicate field="v6" operator="greaterThan" value="0.77"/>
          </Node>
         </Node>
        </Node>
        <Node id="11">
         <SimplePredicate field="v4" operator="greaterThan" value="0.225"/>
         <Node id="20">
          <SimplePredicate field="v1" operator="lessOrEqual" value="1.185"/>
          <Node id="28" score="0">
           <SimplePredicate field="v1" operator="lessOrEqual" value="0.19"/>
          </Node>
          <Node id="29">
           <SimplePredicate field="v1" operator="greaterThan" value="0.19"/>
           <Node id="32" score="0">
            <SimplePredicate field="v7" operator="lessOrEqual" value="0.095"/>
           </Node>
           <Node id="33">
            <SimplePredicate field="v7" operator="greaterThan" value="0.095"/>
            <Node id="34">
             <SimplePredicate field="v2" operator="lessOrEqual" value="1.33"/>
             <Node id="36" score="0">
              <SimplePredicate field="v9" operator="lessOrEqual" value="-0.035"/>
             </Node>
             <Node id="37" score="1">
              <SimplePredicate field="v9" operator="greaterThan" value="-0.035"/>
             </Node>
            </Node>
            <Node id="35" score="0">
             <SimplePredicate field="v2" operator="greaterThan" value="1.33"/>
            </Node>
           </Node>
          </Node>
         </Node>
         <Node id="21" score="0">
          <SimplePredicate field="v1" operator="greaterThan" value="1.185"/>
         </Node>
        </Node>
       </Node>
      </Node>
      <Node id="3">
       <SimplePredicate field="v8" operator="greaterThan" value="1.075"/>
       <Node id="6">
        <SimplePredicate field="v4" operator="lessOrEqual" value="0.885"/>
        <Node id="12" score="0">
         <SimplePredicate field="v7" operator="lessOrEqual" value="0.66"/>
        </Node>
        <Node id="13">
         <SimplePredicate field="v7" operator="greaterThan" value="0.66"/>
         <Node id="22" score="0">
          <SimplePredicate field="v9" operator="lessOrEqual" value="0.45"/>
         </Node>
         <Node id="23">
          <SimplePredicate field="v9" operator="greaterThan" value="0.45"/>
          <Node id="30" score="1">
           <SimplePredicate field="v8" operator="lessOrEqual" value="1.56"/>
          </Node>
          <Node id="31" score="0">
           <SimplePredicate field="v8" operator="greaterThan" value="1.56"/>
          </Node>
         </Node>
        </Node>
       </Node>
       <Node id="7" score="0">
        <SimplePredicate field="v4" operator="greaterThan" value="0.885"/>
       </Node>
      </Node>
     </Node>
    </TreeModel>
   </Segment>
   <Segment id="15">
    <True/>
    <TreeModel modelName="randomForest_Model" functionName="classification" algorithmName="randomForest" splitCharacteristic="binarySplit">
     <MiningSchema>
      <MiningField name="label" usageType="predicted"/>
      <MiningField name="v0" usageType="active"/>
      <MiningField name="v1" usageType="active"/>
      <MiningField name="v2" usageType="active"/>
      <MiningField name="v3" usageType="active"/>
      <MiningField name="v4" usageType="active"/>
      <MiningField name="v5" usageType="active"/>
      <MiningField name="v6" usageType="active"/>
      <MiningField name="v7" usageType="active"/>
      <MiningField name="v8" usageType="active"/>
      <MiningField name="v9" usageType="active"/>
     </MiningSchema>
     <Node id="1">
      <True/>
      <Node id="2">
       <SimplePredicate field="v4" operator="lessOrEqual" value="1.03"/>
       <Node id="4">
        <SimplePredicate field="v4" operator="lessOrEqual" value="0.145"/>
        <Node id="8" score="0">
         <SimplePredicate field="v3" operator="lessOrEqual" value="0.815"/>
        </Node>
        <Node id="9">
         <SimplePredicate field="v3" operator="greaterThan" value="0.815"/>
         <Node id="14" score="0">
          <SimplePredicate field="v4" operator="lessOrEqual" value="0.005"/>
         </Node>
         <Node id="15" score="1">
          <SimplePredicate field="v4" operator="greaterThan" value="0.005"/>
         </Node>
        </Node>
       </Node>
       <Node id="5">
        <SimplePredicate field="v4" operator="greaterThan" value="0.145"/>
        <Node id="10" score="0">
         <SimplePredicate field="v7" operator="lessOrEqual" value="0.195"/>
        </Node>
        <Node id="11">
         <SimplePredicate field="v7" operator="greaterThan" value="0.195"/>
         <Node id="16" score="0">
          <SimplePredicate field="v2" operator="lessOrEqual" value="0.04"/>
         </Node>
         <Node id="17">
          <SimplePredicate field="v2" operator="greaterThan" value="0.04"/>
          <Node id="18">
           <SimplePredicate field="v2" operator="lessOrEqual" value="1.2"/>
           <Node id="20" score="0">
            <SimplePredicate field="v6" operator="lessOrEqual" value="0.035"/>
           </Node>
           <Node id="21">
            <SimplePredicate field="v6" operator="greaterThan" value="0.035"/>
            <Node id="22" score="0">
             <SimplePredicate field="v0" operator="lessOrEqual" value="-0.19"/>
            </Node>
            <Node id="23">
             <SimplePredicate field="v0" operator="greaterThan" value="-0.19"/>
             <Node id="24" score="0">
              <SimplePredicate field="v9" operator="lessOrEqual" value="-0.215"/>
             </Node>
             <Node id="25" score="1">
              <SimplePredicate field="v9" operator="greaterThan" value="-0.215"/>
             </Node>
            </Node>
           </Node>
          </Node>
          <Node id="19" score="0">
           <SimplePredicate field="v2" operator="greaterThan" value="1.2"/>
          </Node>
         </Node>
        </Node>
       </Node>
      </Node>
      <Node id="3">
       <SimplePredicate field="v4" operator="greaterThan" value="1.03"/>
       <Node id="6">
        <SimplePredicate field="v0" operator="lessOrEqual" value="0.8"/>
        <Node id="12" score="0">
         <SimplePredicate field="v3" operator="lessOrEqual" value="1.1"/>
        </Node>
        <Node id="13" score="1">
         <SimplePredicate field="v3" operator="greaterThan" value="1.1"/>
        </Node>
       </Node>
       <Node id="7" score="0">
        <SimplePredicate field="v0" operator="greaterThan" value="0.8"/>
       </Node>
      </Node>
     </Node>
    </TreeModel>
   </Segment>
   <Segment id="16">
    <True/>
    <TreeModel modelName="randomForest_Model" functionName="classification" algorithmName="randomForest" splitCharacteristic="binarySplit">
     <MiningSchema>
      <MiningField name="label" usageType="predicted"/>
      <MiningField name="v0" usageType="active"/>
      <MiningField name="v1" usageType="active"/>
      <MiningField name="v2" usageType="active"/>
      <MiningField name="v3" usageType="active"/>
      <MiningField name="v4" usageType="active"/>
      <MiningField name="v5" usageType="active"/>
      <MiningField name="v6" usageType="active"/>
      <MiningField name="v7" usageType="active"/>
      <MiningField name="v8" usageType="active"/>
      <MiningField name="v9" usageType="active"/>
     </MiningSchema>
     <Node id="1">
      <True/>
      <Node id="2">
       <SimplePredicate field="v2" operator="lessOrEqual" value="1.125"/>
       <Node id="4">
        <SimplePredicate field="v9" operator="lessOrEqual" value="0.285"/>
        <Node id="6" score="0">
         <SimplePredicate field="v4" operator="lessOrEqual" value="0.625"/>
        </Node>
        <Node id="7">
         <SimplePredicate field="v4" operator="greaterThan" value="0.625"/>
         <Node id="10" score="0">
          <SimplePredicate field="v6" operator="lessOrEqual" value="0.545"/>
         </Node>
         <Node id="11">
          <SimplePredicate field="v6" operator="greaterThan" value="0.545"/>
          <Node id="16" score="0">
           <SimplePredicate field="v5" operator="lessOrEqual" value="0.51"/>
          </Node>
          <Node id="17" score="1">
           <SimplePredicate field="v5" operator="greaterThan" value="0.51"/>
          </Node>
         </Node>
        </Node>
       </Node>
       <Node id="5">
        <SimplePredicate field="v9" operator="greaterThan" value="0.285"/>
        <Node id="8">
         <SimplePredicate field="v3" operator="lessOrEqual" value="0.26"/>
         <Node id="12" score="0">
          <SimplePredicate field="v3" operator="lessOrEqual" value="0"/>
         </Node>
         <Node id="13">
          <SimplePredicate field="v3" operator="greaterThan" value="0"/>
          <Node id="18" score="0">
           <SimplePredicate field="v0" operator="lessOrEqual" value="0.33"/>
          </Node>
          <Node id="19" score="1">
           <SimplePredicate field="v0" operator="greaterThan" value="0.33"/>
          </Node>
         </Node>
        </Node>
        <Node id="9">
         <SimplePredicate field="v3" operator="greaterThan" value="0.26"/>
         <Node id="14">
          <SimplePredicate field="v1" operator="lessOrEqual" value="1.3"/>
          <Node id="20" score="0">
           <SimplePredicate field="v0" operator="lessOrEqual" value="-0.035"/>
          </Node>
          <Node id="21">
           <SimplePredicate field="v0" operator="greaterThan" value="-0.035"/>
           <Node id="22">
            <SimplePredicate field="v4" operator="lessOrEqual" value="0.145"/>
            <Node id="24" score="0">
             <SimplePredicate field="v4" operator="lessOrEqual" value="0.005"/>
            </Node>
            <Node id="25">
             <SimplePredicate field="v4" operator="greaterThan" value="0.005"/>
             <Node id="28" score="0">
              <SimplePredicate field="v3" operator="lessOrEqual" value="0.815"/>
             </Node>
             <Node id="29" score="1">
              <SimplePredicate field="v3" operator="greaterThan" value="0.815"/>
             </Node>
            </Node>
           </Node>
           <Node id="23">
            <SimplePredicate field="v4" operator="greaterThan" value="0.145"/>
            <Node id="26" score="0">
             <SimplePredicate field="v7" operator="lessOrEqual" value="0.015"/>
            </Node>
            <Node id="27">
             <SimplePredicate field="v7" operator="greaterThan" value="0.015"/>
             <Node id="30" score="1">
              <SimplePredicate field="v6" operator="lessOrEqual" value="1.315"/>
             </Node>
             <Node id="31" score="0">
              <SimplePredicate field="v6" operator="greaterThan" value="1.315"/>
             </Node>
            </Node>
           </Node>
          </Node>
         </Node>
         <Node id="15" score="0">
          <SimplePredicate field="v1" operator="greaterThan" value="1.3"/>
         </Node>
        </Node>
       </Node>
      </Node>
      <Node id="3" score="0">
       <SimplePredicate field="v2" operator="greaterThan" value="1.125"/>
      </Node>
     </Node>
    </TreeModel>
   </Segment>
   <Segment id="17">
    <True/>
    <TreeModel modelName="randomForest_Model" functionName="classification" algorithmName="randomForest" splitCharacteristic="binarySplit">
     <MiningSchema>
      <MiningField name="label" usageType="predicted"/>
      <MiningField name="v0" usageType="active"/>
      <MiningField name="v1" usageType="active"/>
      <MiningField name="v2" usageType="active"/>
      <MiningField name="v3" usageType="active"/>
      <MiningField name="v4" usageType="active"/>
      <MiningField name="v5" usageType="active"/>
      <MiningField name="v6" usageType="active"/>
      <MiningField name="v7" usageType="active"/>
      <MiningField name="v8" usageType="active"/>
      <MiningField name="v9" usageType="active"/>
     </MiningSchema>
     <Node id="1">
      <True/>
      <Node id="2">
       <SimplePredicate field="v6" operator="lessOrEqual" value="1.065"/>
       <Node id="4">
        <SimplePredicate field="v0" operator="lessOrEqual" value="0.25"/>
        <Node id="8" score="0">
         <SimplePredicate field="v0" operator="lessOrEqual" value="0.095"/>
        </Node>
        <Node id="9">
         <SimplePredicate field="v0" operator="greaterThan" value="0.095"/>
         <Node id="14" score="0">
          <SimplePredicate field="v5" operator="lessOrEqual" value="0.505"/>
         </Node>
         <Node id="15" score="1">
          <SimplePredicate field="v5" operator="greaterThan" value="0.505"/>
         </Node>
        </Node>
       </Node>
       <Node id="5">
        <SimplePredicate field="v0" operator="greaterThan" value="0.25"/>
        <Node id="10">
         <SimplePredicate field="v3" operator="lessOrEqual" value="0.21"/>
         <Node id="16" score="0">
          <SimplePredicate field="v9" operator="lessOrEqual" value="0.745"/>
         </Node>
         <Node id="17">
          <SimplePredicate field="v9" operator="greaterThan" value="0.745"/>
          <Node id="22" score="0">
           <SimplePredicate field="v3" operator="lessOrEqual" value="-0.045"/>
          </Node>
          <Node id="23" score="1">
           <SimplePredicate field="v3" operator="greaterThan" value="-0.045"/>
          </Node>
         </Node>
        </Node>
        <Node id="11">
         <SimplePredicate field="v3" operator="greaterThan" value="0.21"/>
         <Node id="18">
          <SimplePredicate field="v9" operator="lessOrEqual" value="1.31"/>
          <Node id="24" score="0">
           <SimplePredicate field="v9" operator="lessOrEqual" value="0.07"/>
          </Node>
          <Node id="25">
           <SimplePredicate field="v9" operator="greaterThan" value="0.07"/>
           <Node id="26">
            <SimplePredicate field="v2" operator="lessOrEqual" value="1.33"/>
            <Node id="28" score="0">
             <SimplePredicate field="v7" operator="lessOrEqual" value="-0.435"/>
            </Node>
            <Node id="29">
             <SimplePredicate field="v7" operator="greaterThan" value="-0.435"/>
             <Node id="30" score="0">
              <SimplePredicate field="v2" operator="lessOrEqual" value="-0.05"/>
             </Node>
             <Node id="31" score="1">
              <SimplePredicate field="v2" operator="greaterThan" value="-0.05"/>
             </Node>
            </Node>
           </Node>
           <Node id="27" score="0">
            <SimplePredicate field="v2" operator="greaterThan" value="1.33"/>
           </Node>
          </Node>
         </Node>
         <Node id="19" score="0">
          <SimplePredicate field="v9" operator="greaterThan" value="1.31"/>
         </Node>
        </Node>
       </Node>
      </Node>
      <Node id="3">
       <SimplePredicate field="v6" operator="greaterThan" value="1.065"/>
       <Node id="6">
        <SimplePredicate field="v9" operator="lessOrEqual" value="0.83"/>
        <Node id="12" score="0">
         <SimplePredicate field="v4" operator="lessOrEqual" value="0.325"/>
        </Node>
        <Node id="13">
         <SimplePredicate field="v4" operator="greaterThan" value="0.325"/>
         <Node id="20" score="0">
          <SimplePredicate field="v3" operator="lessOrEqual" value="0.42"/>
         </Node>
         <Node id="21" score="1">
          <SimplePredicate field="v3" operator="greaterThan" value="0.42"/>
         </Node>
        </Node>
       </Node>
       <Node id="7" score="0">
        <SimplePredicate field="v9" operator="greaterThan" value="0.83"/>
       </Node>
      </Node>
     </Node>
    </TreeModel>
   </Segment>
   <Segment id="18">
    <True/>
    <TreeModel modelName="randomForest_Model" functionName="classification" algorithmName="randomForest" splitCharacteristic="binarySplit">
     <MiningSchema>
      <MiningField name="label" usageType="predicted"/>
      <MiningField name="v0" usageType="active"/>
      <MiningField name="v1" usageType="active"/>
      <MiningField name="v2" usageType="active"/>
      <MiningField name="v3" usageType="active"/>
      <MiningField name="v4" usageType="active"/>
      <MiningField name="v5" usageType="active"/>
      <MiningField name="v6" usageType="active"/>
      <MiningField name="v7" usageType="active"/>
      <MiningField name="v8" usageType="active"/>
      <MiningField name="v9" usageType="active"/>
     </MiningSchema>
     <Node id="1">
      <True/>
      <Node id="2">
       <SimplePredicate field="v6" operator="lessOrEqual" value="1.085"/>
       <Node id="4">
        <SimplePredicate field="v6" operator="lessOrEqual" value="0.29"/>
        <Node id="8" score="0">
         <SimplePredicate field="v4" operator="lessOrEqual" value="0.555"/>
        </Node>
        <Node id="9">
         <SimplePredicate field="v4" operator="greaterThan" value="0.555"/>
         <Node id="14" score="0">
          <SimplePredicate field="v7" operator="lessOrEqual" value="0.585"/>
         </Node>
         <Node id="15">
          <SimplePredicate field="v7" operator="greaterThan" value="0.585"/>
          <Node id="18" score="0">
           <SimplePredicate field="v3" operator="lessOrEqual" value="0.425"/>
          </Node>
          <Node id="19">
           <SimplePredicate field="v3" operator="greaterThan" value="0.425"/>
           <Node id="24" score="1">
            <SimplePredicate field="v5" operator="lessOrEqual" value="0.785"/>
           </Node>
           <Node id="25" score="0">
            <SimplePredicate field="v5" operator="greaterThan" value="0.785"/>
           </Node>
          </Node>
         </Node>
        </Node>
       </Node>
       <Node id="5">
        <SimplePredicate field="v6" operator="greaterThan" value="0.29"/>
        <Node id="10" score="0">
         <SimplePredicate field="v7" operator="lessOrEqual" value="0.185"/>
        </Node>
        <Node id="11">
         <SimplePredicate field="v7" operator="greaterThan" value="0.185"/>
         <Node id="16">
          <SimplePredicate field="v0" operator="lessOrEqual" value="1.085"/>
          <Node id="20" score="0">
           <SimplePredicate field="v1" operator="lessOrEqual" value="0.195"/>
          </Node>
          <Node id="21">
           <SimplePredicate field="v1" operator="greaterThan" value="0.195"/>
           <Node id="26" score="0">
            <SimplePredicate field="v2" operator="lessOrEqual" value="0.03"/>
           </Node>
           <Node id="27">
            <SimplePredicate field="v2" operator="greaterThan" value="0.03"/>
            <Node id="30" score="1">
             <SimplePredicate field="v3" operator="lessOrEqual" value="1.415"/>
            </Node>
            <Node id="31" score="0">
             <SimplePredicate field="v3" operator="greaterThan" value="1.415"/>
            </Node>
           </Node>
          </Node>
         </Node>
         <Node id="17">
          <SimplePredicate field="v0" operator="greaterThan" value="1.085"/>
          <Node id="22">
           <SimplePredicate field="v4" operator="lessOrEqual" value="0.945"/>
           <Node id="28" score="0">
            <SimplePredicate field="v4" operator="lessOrEqual" value="0.295"/>
           </Node>
           <Node id="29" score="1">
            <SimplePredicate field="v4" operator="greaterThan" value="0.295"/>
           </Node>
          </Node>
          <Node id="23" score="0">
           <SimplePredicate field="v4" operator="greaterThan" value="0.945"/>
          </Node>
         </Node>
        </Node>
       </Node>
      </Node>
      <Node id="3">
       <SimplePredicate field="v6" operator="greaterThan" value="1.085"/>
       <Node id="6">
        <SimplePredicate field="v3" operator="lessOrEqual" value="0.81"/>
        <Node id="12" score="1">
         <SimplePredicate field="v6" operator="lessOrEqual" value="1.195"/>
        </Node>
        <Node id="13" score="0">
         <SimplePredicate field="v6" operator="greaterThan" value="1.195"/>
        </Node>
       </Node>
       <Node id="7" score="0">
        <SimplePredicate field="v3" operator="greaterThan" value="0.81"/>
       </Node>
      </Node>
     </Node>
    </TreeModel>
   </Segment>
   <Segment id="19">
    <True/>
    <TreeModel modelName="randomForest_Model" functionName="classification" algorithmName="randomForest" splitCharacteristic="binarySplit">
     <MiningSchema>
      <MiningField name="label" usageType="predicted"/>
      <MiningField name="v0" usageType="active"/>
      <MiningField name="v1" usageType="active"/>
      <MiningField name="v2" usageType="active"/>
      <MiningField name="v3" usageType="active"/>
      <MiningField name="v4" usageType="active"/>
      <MiningField name="v5" usageType="active"/>
      <MiningField name="v6" usageType="active"/>
      <MiningField name="v7" usageType="active"/>
      <MiningField name="v8" usageType="active"/>
      <MiningField name="v9" usageType="active"/>
     </MiningSchema>
     <Node id="1">
      <True/>
      <Node id="2">
       <SimplePredicate field="v4" operator="lessOrEqual" value="1.005"/>
       <Node id="4" score="0">
        <SimplePredicate field="v9" operator="lessOrEqual" value="0.27"/>
       </Node>
       <Node id="5">
        <SimplePredicate field="v9" operator="greaterThan" value="0.27"/>
        <Node id="8">
         <SimplePredicate field="v4" operator="lessOrEqual" value="0.155"/>
         <Node id="12" score="0">
          <SimplePredicate field="v3" operator="lessOrEqual" value="0.715"/>
         </Node>
         <Node id="13">
          <SimplePredicate field="v3" operator="greaterThan" value="0.715"/>
          <Node id="18" score="1">
           <SimplePredicate field="v3" operator="lessOrEqual" value="0.825"/>
          </Node>
          <Node id="19" score="0">
           <SimplePredicate field="v3" operator="greaterThan" value="0.825"/>
          </Node>
         </Node>
        </Node>
        <Node id="9">
         <SimplePredicate field="v4" operator="greaterThan" value="0.155"/>
         <Node id="14">
          <SimplePredicate field="v3" operator="lessOrEqual" value="0.13"/>
          <Node id="20" score="0">
           <SimplePredicate field="v0" operator="lessOrEqual" value="0.365"/>
          </Node>
          <Node id="21">
           <SimplePredicate field="v0" operator="greaterThan" value="0.365"/>
           <Node id="24">
